<?xml version="1.0"?>
<opencv_storage>
<myhaar type_id="opencv-haar-classifier">
  <size>
    24 24</size>
  <stages>
    <_>
      <trees>
        <_>
          <_>
            <feature>
              <rects>
                <_>
                  12 4 10 10 -1.</_>
                <_>
                  12 4 5 10 2.</_></rects>
              <tilted>1</tilted></feature>
            <threshold>-0.1247079968452454</threshold>
            <left_val>0.8387228250503540</left_val>
            <right_val>-0.8338199257850647</right_val></_></_>
        <_>
          <_>
            <feature>
              <rects>
                <_>
                  5 0 16 16 -1.</_>
                <_>
                  5 8 16 8 2.</_></rects>
              <tilted>0</tilted></feature>
            <threshold>-4.6250210143625736e-003</threshold>
            <left_val>-0.9533066153526306</left_val>
            <right_val>0.4700753092765808</right_val></_></_></trees>
      <stage_threshold>-0.3637445867061615</stage_threshold>
      <parent>-1</parent>
      <next>-1</next></_>
    <_>
      <trees>
        <_>
          <_>
            <feature>
              <rects>
                <_>
                  7 2 10 22 -1.</_>
                <_>
                  7 13 10 11 2.</_></rects>
              <tilted>0</tilted></feature>
            <threshold>0.1124531030654907</threshold>
            <left_val>-0.8605952262878418</left_val>
            <right_val>0.6994034051895142</right_val></_></_>
        <_>
          <_>
            <feature>
              <rects>
                <_>
                  0 16 24 6 -1.</_>
                <_>
                  0 16 12 6 2.</_></rects>
              <tilted>0</tilted></feature>
            <threshold>-0.1186416968703270</threshold>
            <left_val>0.6030663847923279</left_val>
            <right_val>-0.7007591128349304</right_val></_></_></trees>
      <stage_threshold>-0.2575288116931915</stage_threshold>
      <parent>0</parent>
      <next>-1</next></_>
    <_>
      <trees>
        <_>
          <_>
            <feature>
              <rects>
                <_>
                  8 13 8 10 -1.</_>
                <_>
                  8 18 8 5 2.</_></rects>
              <tilted>0</tilted></feature>
            <threshold>0.0157294198870659</threshold>
            <left_val>-0.7733911275863648</left_val>
            <right_val>0.5457348823547363</right_val></_></_>
        <_>
          <_>
            <feature>
              <rects>
                <_>
                  14 1 2 6 -1.</_>
                <_>
                  14 4 2 3 2.</_></rects>
              <tilted>0</tilted></feature>
            <threshold>-5.9899190091527998e-005</threshold>
            <left_val>-0.7015622258186340</left_val>
            <right_val>0.3867455124855042</right_val></_></_>
        <_>
          <_>
            <feature>
              <rects>
                <_>
                  1 1 22 1 -1.</_>
                <_>
                  1 1 11 1 2.</_></rects>
              <tilted>1</tilted></feature>
            <threshold>-0.0542942993342876</threshold>
            <left_val>0.5301480293273926</left_val>
            <right_val>-0.6943920850753784</right_val></_></_>
        <_>
          <_>
            <feature>
              <rects>
                <_>
                  14 0 4 6 -1.</_>
                <_>
                  14 0 2 6 2.</_></rects>
              <tilted>1</tilted></feature>
            <threshold>4.3354430235922337e-003</threshold>
            <left_val>0.1611029952764511</left_val>
            <right_val>-0.7996826171875000</right_val></_></_>
        <_>
          <_>
            <feature>
              <rects>
                <_>
                  1 13 18 8 -1.</_>
                <_>
                  1 13 9 4 2.</_>
                <_>
                  10 17 9 4 2.</_></rects>
              <tilted>0</tilted></feature>
            <threshold>4.3918839655816555e-003</threshold>
            <left_val>-0.7358852028846741</left_val>
            <right_val>0.4924859106540680</right_val></_></_>
        <_>
          <_>
            <feature>
              <rects>
                <_>
                  15 1 4 4 -1.</_>
                <_>
                  15 3 4 2 2.</_></rects>
              <tilted>0</tilted></feature>
            <threshold>-5.4442211985588074e-003</threshold>
            <left_val>-1.</left_val>
            <right_val>2.6478979270905256e-003</right_val></_></_></trees>
      <stage_threshold>-1.4223539829254150</stage_threshold>
      <parent>1</parent>
      <next>-1</next></_>
    <_>
      <trees>
        <_>
          <_>
            <feature>
              <rects>
                <_>
                  6 0 8 2 -1.</_>
                <_>
                  6 0 4 2 2.</_></rects>
              <tilted>1</tilted></feature>
            <threshold>9.7264237410854548e-005</threshold>
            <left_val>0.3537414968013763</left_val>
            <right_val>-0.9999960064888001</right_val></_></_></trees>
      <stage_threshold>0.3537414968013763</stage_threshold>
      <parent>2</parent>
      <next>-1</next></_>
    <_>
      <trees>
        <_>
          <_>
            <feature>
              <rects>
                <_>
                  0 0 20 24 -1.</_>
                <_>
                  0 0 10 12 2.</_>
                <_>
                  10 12 10 12 2.</_></rects>
              <tilted>0</tilted></feature>
            <threshold>0.0877882689237595</threshold>
            <left_val>-0.6812422871589661</left_val>
            <right_val>0.6550142168998718</right_val></_></_>
        <_>
          <_>
            <feature>
              <rects>
                <_>
                  8 18 8 4 -1.</_>
                <_>
                  8 20 8 2 2.</_></rects>
              <tilted>0</tilted></feature>
            <threshold>3.2738419249653816e-003</threshold>
            <left_val>-0.6942331194877625</left_val>
            <right_val>0.5417417287826538</right_val></_></_>
        <_>
          <_>
            <feature>
              <rects>
                <_>
                  0 0 24 1 -1.</_>
                <_>
                  6 0 12 1 2.</_></rects>
              <tilted>0</tilted></feature>
            <threshold>-2.1048029884696007e-004</threshold>
            <left_val>0.3896824121475220</left_val>
            <right_val>-0.8324304819107056</right_val></_></_>
        <_>
          <_>
            <feature>
              <rects>
                <_>
                  15 2 6 1 -1.</_>
                <_>
                  15 2 3 1 2.</_></rects>
              <tilted>0</tilted></feature>
            <threshold>-3.6661389749497175e-003</threshold>
            <left_val>-0.8208785057067871</left_val>
            <right_val>0.1230083033442497</right_val></_></_>
        <_>
          <_>
            <feature>
              <rects>
                <_>
                  0 4 6 19 -1.</_>
                <_>
                  3 4 3 19 2.</_></rects>
              <tilted>0</tilted></feature>
            <threshold>-9.9131409078836441e-003</threshold>
            <left_val>-1.</left_val>
            <right_val>0.3212661147117615</right_val></_></_></trees>
      <stage_threshold>-0.5415186285972595</stage_threshold>
      <parent>3</parent>
      <next>-1</next></_>
    <_>
      <trees>
        <_>
          <_>
            <feature>
              <rects>
                <_>
                  5 3 16 5 -1.</_>
                <_>
                  5 3 8 5 2.</_></rects>
              <tilted>1</tilted></feature>
            <threshold>-0.1956029981374741</threshold>
            <left_val>0.7030463218688965</left_val>
            <right_val>-0.7249472141265869</right_val></_></_>
        <_>
          <_>
            <feature>
              <rects>
                <_>
                  4 22 20 1 -1.</_>
                <_>
                  4 22 10 1 2.</_></rects>
              <tilted>0</tilted></feature>
            <threshold>-0.0105950599536300</threshold>
            <left_val>0.4171139895915985</left_val>
            <right_val>-0.2632957100868225</right_val></_></_>
        <_>
          <_>
            <feature>
              <rects>
                <_>
                  2 22 12 1 -1.</_>
                <_>
                  8 22 6 1 2.</_></rects>
              <tilted>0</tilted></feature>
            <threshold>0.0120679102838039</threshold>
            <left_val>-0.6039571166038513</left_val>
            <right_val>0.6059470176696777</right_val></_></_></trees>
      <stage_threshold>-0.9117903113365173</stage_threshold>
      <parent>4</parent>
      <next>-1</next></_>
    <_>
      <trees>
        <_>
          <_>
            <feature>
              <rects>
                <_>
                  0 0 1 18 -1.</_>
                <_>
                  0 9 1 9 2.</_></rects>
              <tilted>0</tilted></feature>
            <threshold>9.2999050393700600e-003</threshold>
            <left_val>0.3444980978965759</left_val>
            <right_val>-0.9233238101005554</right_val></_></_>
        <_>
          <_>
            <feature>
              <rects>
                <_>
                  23 5 1 8 -1.</_>
                <_>
                  23 9 1 4 2.</_></rects>
              <tilted>0</tilted></feature>
            <threshold>8.5004521533846855e-003</threshold>
            <left_val>-0.1695061028003693</left_val>
            <right_val>0.2815823853015900</right_val></_></_>
        <_>
          <_>
            <feature>
              <rects>
                <_>
                  0 5 1 8 -1.</_>
                <_>
                  0 9 1 4 2.</_></rects>
              <tilted>0</tilted></feature>
            <threshold>-8.3979067858308554e-004</threshold>
            <left_val>-0.8279554247856140</left_val>
            <right_val>0.3770481944084168</right_val></_></_>
        <_>
          <_>
            <feature>
              <rects>
                <_>
                  10 0 6 1 -1.</_>
                <_>
                  10 0 3 1 2.</_></rects>
              <tilted>0</tilted></feature>
            <threshold>4.2755220783874393e-004</threshold>
            <left_val>0.1258922964334488</left_val>
            <right_val>-0.8509281873703003</right_val></_></_></trees>
      <stage_threshold>-0.5270711183547974</stage_threshold>
      <parent>5</parent>
      <next>-1</next></_>
    <_>
      <trees>
        <_>
          <_>
            <feature>
              <rects>
                <_>
                  0 3 11 18 -1.</_>
                <_>
                  0 12 11 9 2.</_></rects>
              <tilted>0</tilted></feature>
            <threshold>2.0820870995521545e-003</threshold>
            <left_val>-0.8871557712554932</left_val>
            <right_val>0.3397760093212128</right_val></_></_>
        <_>
          <_>
            <feature>
              <rects>
                <_>
                  7 12 16 10 -1.</_>
                <_>
                  15 12 8 5 2.</_>
                <_>
                  7 17 8 5 2.</_></rects>
              <tilted>0</tilted></feature>
            <threshold>4.4723208993673325e-003</threshold>
            <left_val>-0.2760975062847138</left_val>
            <right_val>0.1420395970344544</right_val></_></_>
        <_>
          <_>
            <feature>
              <rects>
                <_>
                  0 0 24 1 -1.</_>
                <_>
                  12 0 12 1 2.</_></rects>
              <tilted>0</tilted></feature>
            <threshold>1.4174829993862659e-004</threshold>
            <left_val>-0.9148101210594177</left_val>
            <right_val>0.2788164019584656</right_val></_></_>
        <_>
          <_>
            <feature>
              <rects>
                <_>
                  5 11 18 12 -1.</_>
                <_>
                  14 11 9 6 2.</_>
                <_>
                  5 17 9 6 2.</_></rects>
              <tilted>0</tilted></feature>
            <threshold>-0.0212448891252279</threshold>
            <left_val>0.1844428032636643</left_val>
            <right_val>-0.1628593951463699</right_val></_></_>
        <_>
          <_>
            <feature>
              <rects>
                <_>
                  1 12 16 10 -1.</_>
                <_>
                  1 12 8 5 2.</_>
                <_>
                  9 17 8 5 2.</_></rects>
              <tilted>0</tilted></feature>
            <threshold>0.0266160704195499</threshold>
            <left_val>-0.5667448043823242</left_val>
            <right_val>0.5189281702041626</right_val></_></_></trees>
      <stage_threshold>-0.3871093094348908</stage_threshold>
      <parent>6</parent>
      <next>-1</next></_>
    <_>
      <trees>
        <_>
          <_>
            <feature>
              <rects>
                <_>
                  7 0 3 3 -1.</_>
                <_>
                  8 0 1 3 3.</_></rects>
              <tilted>0</tilted></feature>
            <threshold>1.1154959793202579e-004</threshold>
            <left_val>0.2536695897579193</left_val>
            <right_val>-0.9048482775688171</right_val></_></_>
        <_>
          <_>
            <feature>
              <rects>
                <_>
                  2 22 20 2 -1.</_>
                <_>
                  2 23 20 1 2.</_></rects>
              <tilted>0</tilted></feature>
            <threshold>-6.4929709769785404e-003</threshold>
            <left_val>0.6011317968368530</left_val>
            <right_val>-0.4328582882881165</right_val></_></_>
        <_>
          <_>
            <feature>
              <rects>
                <_>
                  0 1 1 4 -1.</_>
                <_>
                  0 3 1 2 2.</_></rects>
              <tilted>0</tilted></feature>
            <threshold>1.0929309792118147e-004</threshold>
            <left_val>0.3542867898941040</left_val>
            <right_val>-0.7526714205741882</right_val></_></_>
        <_>
          <_>
            <feature>
              <rects>
                <_>
                  7 7 12 2 -1.</_>
                <_>
                  10 7 6 2 2.</_></rects>
              <tilted>0</tilted></feature>
            <threshold>1.2825500452890992e-003</threshold>
            <left_val>0.2171165943145752</left_val>
            <right_val>-0.6448788046836853</right_val></_></_>
        <_>
          <_>
            <feature>
              <rects>
                <_>
                  0 6 24 14 -1.</_>
                <_>
                  12 6 12 14 2.</_></rects>
              <tilted>0</tilted></feature>
            <threshold>0.2907103896141052</threshold>
            <left_val>-0.5385543704032898</left_val>
            <right_val>0.4217005074024200</right_val></_></_></trees>
      <stage_threshold>-0.4175707995891571</stage_threshold>
      <parent>7</parent>
      <next>-1</next></_>
    <_>
      <trees>
        <_>
          <_>
            <feature>
              <rects>
                <_>
                  2 2 20 2 -1.</_>
                <_>
                  12 2 10 2 2.</_></rects>
              <tilted>0</tilted></feature>
            <threshold>0.0165760405361652</threshold>
            <left_val>0.4748541116714478</left_val>
            <right_val>-0.6926618814468384</right_val></_></_>
        <_>
          <_>
            <feature>
              <rects>
                <_>
                  11 12 10 12 -1.</_>
                <_>
                  16 12 5 6 2.</_>
                <_>
                  11 18 5 6 2.</_></rects>
              <tilted>0</tilted></feature>
            <threshold>0.0115547999739647</threshold>
            <left_val>-0.2098958045244217</left_val>
            <right_val>0.1553937047719955</right_val></_></_>
        <_>
          <_>
            <feature>
              <rects>
                <_>
                  0 0 6 3 -1.</_>
                <_>
                  2 1 2 1 9.</_></rects>
              <tilted>0</tilted></feature>
            <threshold>8.7560132669750601e-005</threshold>
            <left_val>0.3088716864585877</left_val>
            <right_val>-0.7799226045608521</right_val></_></_>
        <_>
          <_>
            <feature>
              <rects>
                <_>
                  12 14 8 10 -1.</_>
                <_>
                  16 14 4 5 2.</_>
                <_>
                  12 19 4 5 2.</_></rects>
              <tilted>0</tilted></feature>
            <threshold>0.0317967012524605</threshold>
            <left_val>-0.0905214473605156</left_val>
            <right_val>0.4224126935005188</right_val></_></_>
        <_>
          <_>
            <feature>
              <rects>
                <_>
                  2 0 6 1 -1.</_>
                <_>
                  5 0 3 1 2.</_></rects>
              <tilted>0</tilted></feature>
            <threshold>7.6384429121389985e-005</threshold>
            <left_val>0.3151648938655853</left_val>
            <right_val>-0.7389116287231445</right_val></_></_>
        <_>
          <_>
            <feature>
              <rects>
                <_>
                  18 13 4 7 -1.</_>
                <_>
                  19 14 2 7 2.</_></rects>
              <tilted>1</tilted></feature>
            <threshold>0.0200655404478312</threshold>
            <left_val>-0.1729822009801865</left_val>
            <right_val>0.5000119805335999</right_val></_></_>
        <_>
          <_>
            <feature>
              <rects>
                <_>
                  6 13 7 4 -1.</_>
                <_>
                  5 14 7 2 2.</_></rects>
              <tilted>1</tilted></feature>
            <threshold>9.1996472328901291e-003</threshold>
            <left_val>-0.3469749093055725</left_val>
            <right_val>0.6894459724426270</right_val></_></_></trees>
      <stage_threshold>-0.8889997005462647</stage_threshold>
      <parent>8</parent>
      <next>-1</next></_>
    <_>
      <trees>
        <_>
          <_>
            <feature>
              <rects>
                <_>
                  3 0 18 2 -1.</_>
                <_>
                  12 0 9 2 2.</_></rects>
              <tilted>0</tilted></feature>
            <threshold>7.6844589784741402e-003</threshold>
            <left_val>0.4140473008155823</left_val>
            <right_val>-0.5592455267906189</right_val></_></_>
        <_>
          <_>
            <feature>
              <rects>
                <_>
                  20 10 4 8 -1.</_>
                <_>
                  20 10 4 4 2.</_></rects>
              <tilted>1</tilted></feature>
            <threshold>-7.5117428787052631e-004</threshold>
            <left_val>0.2480473071336746</left_val>
            <right_val>-0.3895308971405029</right_val></_></_>
        <_>
          <_>
            <feature>
              <rects>
                <_>
                  2 12 4 7 -1.</_>
                <_>
                  4 12 2 7 2.</_></rects>
              <tilted>0</tilted></feature>
            <threshold>8.9717824012041092e-003</threshold>
            <left_val>-0.3431800901889801</left_val>
            <right_val>0.6327400207519531</right_val></_></_>
        <_>
          <_>
            <feature>
              <rects>
                <_>
                  7 16 11 6 -1.</_>
                <_>
                  7 19 11 3 2.</_></rects>
              <tilted>0</tilted></feature>
            <threshold>4.6483301557600498e-003</threshold>
            <left_val>-0.8097791075706482</left_val>
            <right_val>0.2817013859748840</right_val></_></_>
        <_>
          <_>
            <feature>
              <rects>
                <_>
                  0 16 4 8 -1.</_>
                <_>
                  1 16 2 8 2.</_></rects>
              <tilted>0</tilted></feature>
            <threshold>-2.5713280774652958e-004</threshold>
            <left_val>0.5010849237442017</left_val>
            <right_val>-0.4407711029052734</right_val></_></_>
        <_>
          <_>
            <feature>
              <rects>
                <_>
                  17 0 2 1 -1.</_>
                <_>
                  17 0 1 1 2.</_></rects>
              <tilted>1</tilted></feature>
            <threshold>-1.8360039684921503e-003</threshold>
            <left_val>-0.6976143121719360</left_val>
            <right_val>0.0548011809587479</right_val></_></_>
        <_>
          <_>
            <feature>
              <rects>
                <_>
                  4 0 1 4 -1.</_>
                <_>
                  4 0 1 2 2.</_></rects>
              <tilted>1</tilted></feature>
            <threshold>-4.7672900109319016e-005</threshold>
            <left_val>-0.6193274855613709</left_val>
            <right_val>0.3798153102397919</right_val></_></_></trees>
      <stage_threshold>-0.5543059706687927</stage_threshold>
      <parent>9</parent>
      <next>-1</next></_>
    <_>
      <trees>
        <_>
          <_>
            <feature>
              <rects>
                <_>
                  3 2 18 10 -1.</_>
                <_>
                  3 2 9 5 2.</_>
                <_>
                  12 7 9 5 2.</_></rects>
              <tilted>0</tilted></feature>
            <threshold>0.0349182300269604</threshold>
            <left_val>-0.2828820943832398</left_val>
            <right_val>0.6514533758163452</right_val></_></_>
        <_>
          <_>
            <feature>
              <rects>
                <_>
                  2 20 20 4 -1.</_>
                <_>
                  2 21 20 2 2.</_></rects>
              <tilted>0</tilted></feature>
            <threshold>9.1932192444801331e-003</threshold>
            <left_val>-0.3682323098182678</left_val>
            <right_val>0.6009232997894287</right_val></_></_>
        <_>
          <_>
            <feature>
              <rects>
                <_>
                  0 0 24 2 -1.</_>
                <_>
                  8 0 8 2 3.</_></rects>
              <tilted>0</tilted></feature>
            <threshold>-9.6428050892427564e-004</threshold>
            <left_val>0.3397951126098633</left_val>
            <right_val>-0.6792001724243164</right_val></_></_>
        <_>
          <_>
            <feature>
              <rects>
                <_>
                  13 0 8 1 -1.</_>
                <_>
                  13 0 4 1 2.</_></rects>
              <tilted>0</tilted></feature>
            <threshold>-3.3237519674003124e-003</threshold>
            <left_val>-0.4794546067714691</left_val>
            <right_val>0.0995639786124229</right_val></_></_>
        <_>
          <_>
            <feature>
              <rects>
                <_>
                  3 0 8 1 -1.</_>
                <_>
                  7 0 4 1 2.</_></rects>
              <tilted>0</tilted></feature>
            <threshold>-4.9278231017524377e-005</threshold>
            <left_val>-0.7563092708587647</left_val>
            <right_val>0.2405938953161240</right_val></_></_></trees>
      <stage_threshold>-0.6127477288246155</stage_threshold>
      <parent>10</parent>
      <next>-1</next></_>
    <_>
      <trees>
        <_>
          <_>
            <feature>
              <rects>
                <_>
                  2 0 6 3 -1.</_>
                <_>
                  4 1 2 1 9.</_></rects>
              <tilted>0</tilted></feature>
            <threshold>2.5301760615548119e-005</threshold>
            <left_val>0.2649525105953217</left_val>
            <right_val>-0.6973353028297424</right_val></_></_>
        <_>
          <_>
            <feature>
              <rects>
                <_>
                  16 13 4 10 -1.</_>
                <_>
                  18 13 2 5 2.</_>
                <_>
                  16 18 2 5 2.</_></rects>
              <tilted>0</tilted></feature>
            <threshold>0.0143103599548340</threshold>
            <left_val>-0.1837309002876282</left_val>
            <right_val>0.7928053140640259</right_val></_></_>
        <_>
          <_>
            <feature>
              <rects>
                <_>
                  0 18 8 4 -1.</_>
                <_>
                  2 18 4 4 2.</_></rects>
              <tilted>0</tilted></feature>
            <threshold>-8.7811434641480446e-003</threshold>
            <left_val>0.6004307866096497</left_val>
            <right_val>-0.3147600889205933</right_val></_></_>
        <_>
          <_>
            <feature>
              <rects>
                <_>
                  19 1 4 3 -1.</_>
                <_>
                  19 2 4 1 3.</_></rects>
              <tilted>0</tilted></feature>
            <threshold>-4.1573238559067249e-003</threshold>
            <left_val>-1.</left_val>
            <right_val>0.0820868834853172</right_val></_></_>
        <_>
          <_>
            <feature>
              <rects>
                <_>
                  1 1 4 3 -1.</_>
                <_>
                  1 2 4 1 3.</_></rects>
              <tilted>0</tilted></feature>
            <threshold>4.3267638830002397e-005</threshold>
            <left_val>0.3016484081745148</left_val>
            <right_val>-0.7857652902603149</right_val></_></_>
        <_>
          <_>
            <feature>
              <rects>
                <_>
                  15 0 3 3 -1.</_>
                <_>
                  16 0 1 3 3.</_></rects>
              <tilted>0</tilted></feature>
            <threshold>-2.4778940714895725e-003</threshold>
            <left_val>-1.</left_val>
            <right_val>4.8408489674329758e-003</right_val></_></_>
        <_>
          <_>
            <feature>
              <rects>
                <_>
                  2 12 4 9 -1.</_>
                <_>
                  3 12 2 9 2.</_></rects>
              <tilted>0</tilted></feature>
            <threshold>1.2887950288131833e-003</threshold>
            <left_val>-0.3198789060115814</left_val>
            <right_val>0.5636429786682129</right_val></_></_></trees>
      <stage_threshold>-0.4158299863338471</stage_threshold>
      <parent>11</parent>
      <next>-1</next></_>
    <_>
      <trees>
        <_>
          <_>
            <feature>
              <rects>
                <_>
                  5 0 8 2 -1.</_>
                <_>
                  7 0 4 2 2.</_></rects>
              <tilted>0</tilted></feature>
            <threshold>1.0633539932314306e-004</threshold>
            <left_val>0.2466181963682175</left_val>
            <right_val>-0.7826275825500488</right_val></_></_>
        <_>
          <_>
            <feature>
              <rects>
                <_>
                  1 15 22 2 -1.</_>
                <_>
                  1 16 22 1 2.</_></rects>
              <tilted>0</tilted></feature>
            <threshold>3.7269210442900658e-003</threshold>
            <left_val>-0.4728831946849823</left_val>
            <right_val>0.4521456956863403</right_val></_></_>
        <_>
          <_>
            <feature>
              <rects>
                <_>
                  2 0 3 2 -1.</_>
                <_>
                  2 1 3 1 2.</_></rects>
              <tilted>0</tilted></feature>
            <threshold>-4.1644638258730993e-005</threshold>
            <left_val>-0.7003000974655151</left_val>
            <right_val>0.3067733049392700</right_val></_></_>
        <_>
          <_>
            <feature>
              <rects>
                <_>
                  14 20 2 2 -1.</_>
                <_>
                  15 20 1 1 2.</_>
                <_>
                  14 21 1 1 2.</_></rects>
              <tilted>0</tilted></feature>
            <threshold>2.8649839805439115e-004</threshold>
            <left_val>-0.1829310953617096</left_val>
            <right_val>0.4356561899185181</right_val></_></_>
        <_>
          <_>
            <feature>
              <rects>
                <_>
                  8 20 2 2 -1.</_>
                <_>
                  8 20 1 1 2.</_>
                <_>
                  9 21 1 1 2.</_></rects>
              <tilted>0</tilted></feature>
            <threshold>9.5762457931414247e-005</threshold>
            <left_val>-0.3632614016532898</left_val>
            <right_val>0.5407410860061646</right_val></_></_>
        <_>
          <_>
            <feature>
              <rects>
                <_>
                  13 0 3 1 -1.</_>
                <_>
                  14 0 1 1 3.</_></rects>
              <tilted>0</tilted></feature>
            <threshold>5.1713781431317329e-004</threshold>
            <left_val>0.0855666100978851</left_val>
            <right_val>-0.9074699878692627</right_val></_></_>
        <_>
          <_>
            <feature>
              <rects>
                <_>
                  5 1 4 4 -1.</_>
                <_>
                  7 1 2 4 2.</_></rects>
              <tilted>0</tilted></feature>
            <threshold>-1.4691050455439836e-004</threshold>
            <left_val>-0.7853289842605591</left_val>
            <right_val>0.2212744951248169</right_val></_></_></trees>
      <stage_threshold>-0.5695015192031860</stage_threshold>
      <parent>12</parent>
      <next>-1</next></_>
    <_>
      <trees>
        <_>
          <_>
            <feature>
              <rects>
                <_>
                  1 1 22 4 -1.</_>
                <_>
                  1 2 22 2 2.</_></rects>
              <tilted>0</tilted></feature>
            <threshold>-1.7412750457879156e-004</threshold>
            <left_val>0.3383983075618744</left_val>
            <right_val>-0.5772243142127991</right_val></_></_>
        <_>
          <_>
            <feature>
              <rects>
                <_>
                  11 2 9 2 -1.</_>
                <_>
                  14 2 3 2 3.</_></rects>
              <tilted>0</tilted></feature>
            <threshold>0.0127688599750400</threshold>
            <left_val>-0.0566228888928890</left_val>
            <right_val>0.6332123279571533</right_val></_></_>
        <_>
          <_>
            <feature>
              <rects>
                <_>
                  9 10 6 7 -1.</_>
                <_>
                  9 10 3 7 2.</_></rects>
              <tilted>1</tilted></feature>
            <threshold>-0.0389620289206505</threshold>
            <left_val>0.2787489891052246</left_val>
            <right_val>-0.6102545857429504</right_val></_></_>
        <_>
          <_>
            <feature>
              <rects>
                <_>
                  11 2 9 2 -1.</_>
                <_>
                  14 2 3 2 3.</_></rects>
              <tilted>0</tilted></feature>
            <threshold>-1.8349370293435641e-005</threshold>
            <left_val>0.1578332036733627</left_val>
            <right_val>-0.1220818012952805</right_val></_></_>
        <_>
          <_>
            <feature>
              <rects>
                <_>
                  4 2 9 2 -1.</_>
                <_>
                  7 2 3 2 3.</_></rects>
              <tilted>0</tilted></feature>
            <threshold>7.9542667663190514e-005</threshold>
            <left_val>0.3325783014297485</left_val>
            <right_val>-0.7186691164970398</right_val></_></_>
        <_>
          <_>
            <feature>
              <rects>
                <_>
                  17 20 4 4 -1.</_>
                <_>
                  17 21 4 2 2.</_></rects>
              <tilted>0</tilted></feature>
            <threshold>-4.7332979738712311e-003</threshold>
            <left_val>0.5340816974639893</left_val>
            <right_val>-0.1335856020450592</right_val></_></_>
        <_>
          <_>
            <feature>
              <rects>
                <_>
                  3 20 4 4 -1.</_>
                <_>
                  3 21 4 2 2.</_></rects>
              <tilted>0</tilted></feature>
            <threshold>-3.8131090695969760e-004</threshold>
            <left_val>0.4911316931247711</left_val>
            <right_val>-0.3706218898296356</right_val></_></_>
        <_>
          <_>
            <feature>
              <rects>
                <_>
                  8 0 16 1 -1.</_>
                <_>
                  8 0 8 1 2.</_></rects>
              <tilted>0</tilted></feature>
            <threshold>-0.0288028400391340</threshold>
            <left_val>0.8706641793251038</left_val>
            <right_val>-0.0316975787281990</right_val></_></_>
        <_>
          <_>
            <feature>
              <rects>
                <_>
                  0 0 16 1 -1.</_>
                <_>
                  8 0 8 1 2.</_></rects>
              <tilted>0</tilted></feature>
            <threshold>2.9016091139055789e-004</threshold>
            <left_val>0.4732722938060761</left_val>
            <right_val>-0.4489068090915680</right_val></_></_>
        <_>
          <_>
            <feature>
              <rects>
                <_>
                  12 23 6 1 -1.</_>
                <_>
                  12 23 3 1 2.</_></rects>
              <tilted>0</tilted></feature>
            <threshold>3.6622930783778429e-003</threshold>
            <left_val>-0.1153793036937714</left_val>
            <right_val>0.5114194750785828</right_val></_></_>
        <_>
          <_>
            <feature>
              <rects>
                <_>
                  0 3 24 3 -1.</_>
                <_>
                  6 3 12 3 2.</_></rects>
              <tilted>0</tilted></feature>
            <threshold>0.0282973498106003</threshold>
            <left_val>-0.2213131040334702</left_val>
            <right_val>0.8646379113197327</right_val></_></_></trees>
      <stage_threshold>-0.6043521761894226</stage_threshold>
      <parent>13</parent>
      <next>-1</next></_></stages></myhaar>
</opencv_storage>
